Language model created by QuickLM on Sun Jul 14 17:05:50 EDT 2013
Copyright (c) 1996-2010 Carnegie Mellon University and Alexander I. Rudnicky

The model is in standard ARPA format, designed by Doug Paul while he was at MITRE.

The code that was used to produce this language model is available in Open Source.
Please visit http://www.speech.cs.cmu.edu/tools/ for more information

The (fixed) discount mass is 0.5. The backoffs are computed using the ratio method.
This model based on a corpus of 4 sentences and 8 words

\data\
ngram 1=8
ngram 2=11
ngram 3=10

\1-grams:
-0.9542 </s> -0.3010
-0.9542 <s> -0.2499
-1.5563 ALARM -0.2888
-1.5563 AUS -0.2499
-1.2553 BYE -0.2218
-1.5563 HILFE -0.2499
-0.9542 SEHEIAH -0.2361
-1.5563 TEST -0.2499

\2-grams:
-0.3010 <s> SEHEIAH 0.0000
-0.3010 ALARM AUS 0.0000
-0.3010 AUS </s> -0.3010
-0.6021 BYE </s> -0.3010
-0.6021 BYE BYE -0.1761
-0.3010 HILFE </s> -0.3010
-0.9031 SEHEIAH ALARM 0.0000
-0.9031 SEHEIAH BYE -0.1761
-0.9031 SEHEIAH HILFE 0.0000
-0.9031 SEHEIAH TEST 0.0000
-0.3010 TEST </s> -0.3010

\3-grams:
-0.9031 <s> SEHEIAH ALARM
-0.9031 <s> SEHEIAH BYE
-0.9031 <s> SEHEIAH HILFE
-0.9031 <s> SEHEIAH TEST
-0.3010 ALARM AUS </s>
-0.3010 BYE BYE </s>
-0.3010 SEHEIAH ALARM AUS
-0.3010 SEHEIAH BYE BYE
-0.3010 SEHEIAH HILFE </s>
-0.3010 SEHEIAH TEST </s>

\end\
